4 4
48 6
0.006474696355743631 -0.1576907145226975 -0.07407513788818414 0.07506268914302962 0.049871521849689536 0.02581836337418735
0.048453770513387125 0.1509453751850765 0.151053681318799 0.12451416929030026 -0.05432994388798654 -0.1610357139663878
0.07068780974461279 -0.06726189152543434 0.04720177358792035 -0.3054155729367078 0.056314295508320504 -0.022007576198424656
0.13485557662453684 -0.029340742561960818 0.20991172290417376 -0.17994008429609595 0.24285742347982148 0.13068822462428445
0.08709512758060084 0.16057197074931243 -0.06250863370910896 -0.11081331667714728 -0.19990852076694135 -0.16629157406147044
-0.04709384906342296 -0.19355632671202835 -0.1078474570777675 0.1321175878173009 -0.016129160210541137 -0.14260215300398196
0.2146411126073337 -0.02034692061594694 0.12697413165627533 -0.008690181221335962 -0.25723605011581974 -0.4326698662406647
0.07080361544400492 -0.2364955398445837 -0.1581518006456547 -0.166705712928997 0.3387624920670215 0.1991982970419888
-0.16350295889726973 0.203930367471013 0.09620820468965995 0.04391800006609067 -0.043738160498212095 0.035729542215619456
-0.24737895068910376 -0.10481982819619746 0.005876878288091685 -0.026534550394717672 -0.013426058807203907 0.1820399902208908
0.1771024632792579 0.17822026484506 0.12750733410729442 -0.12652756851651004 -0.030720904726293973 -0.04553417950607921
0.18677548730160784 -0.15461540400460266 0.001375044548653064 0.008358190026818105 0.10871688699511317 -0.23925953197767072
-0.13404895276472253 -0.2236441497476149 -0.23745983464469342 -0.07284962098429798 0.07571892568245117 -0.10751037356361769
0.20751020823359642 0.13532444701773474 0.04652526857926797 -0.15378115488078437 -0.0652705927647568 0.1913021965002129
-0.12797178066146694 0.15569580802144942 0.09433113367815721 0.09941082347084647 0.11729713051325139 -0.12194695991872812
0.1353391755580719 0.10229176623566082 -0.18726802496253442 0.06674788301955215 0.23436051244928843 0.28559302622034655
0.027428261166951365 -0.12446929281383695 0.1074467605063555 0.17545381848552802 0.01284960562607346 -0.2567006908945856
-0.13264464595473852 0.07683200551757374 0.025506359162272528 -0.35485325913446125 -0.019366808856546115 -0.10237083640186007
0.054147797261878926 0.06077730783059093 -0.14756811012295792 -0.2246427117177525 -0.06419879436769534 -0.04726958841050039
-0.12849605113086435 0.20629310474471907 -0.13261728992904553 -0.05909081247836333 0.092695095924881 0.051461263802229575
0.06632127750088794 -0.179237425072831 0.1264181610861229 0.21901235289241905 0.0065679806411103525 -0.14692244172979177
0.22803936337410083 0.14543357487872194 -0.26331383602278297 0.18659007651845239 0.09430290628032896 -0.15793989499459762
-0.1508088666276534 -0.20943015582689725 0.2899905487679755 0.026546633952845015 0.07671761923687584 0.056520301224855934
-0.14199709208225525 0.15656924003345923 -0.042848931999284794 -0.29228798135041884 0.01971284614263645 0.04676728727664182
0.166071667337156 -0.04500824551778724 -0.04015393627636642 -0.11617169088766047 0.12290768561609057 -0.007500839838297009
-0.024394929905748902 0.030123759010795483 -0.16663988781502306 0.03466602221672377 0.027071723379494383 -0.20259837061807062
-0.06636517481787649 -0.07825960739992151 0.13042529969703176 0.1450495467246467 0.07212227060126798 0.2147817857251052
-0.19617059500634423 -0.2164862761501463 0.11460239843708858 0.04071096471368547 0.08814339023340394 0.056333920331505825
-0.003247391712809422 0.20056077793661253 -0.0017568370567160522 0.017827973608825067 -0.024329427947050605 0.11737915214189365
0.04665410922911039 0.07831062944573719 -0.16747032278671234 -0.09924888609482335 0.20852737101149482 0.02727712810627431
-0.10416107144685977 0.15394147322055124 -0.18049534462705963 0.0180134269808804 0.04185029475092287 0.06610312039212048
0.06385870525496125 0.1868947248755743 0.265762276621599 -0.10023262758183557 0.21972904454541628 0.0681873541110624
-0.046280616474612395 -0.19436677881728046 -0.19704327413974393 0.15719917445152537 -0.04157268890421117 -0.20573155076824715
-0.008846284142044325 -0.16103954138419285 0.24795183237843035 -0.1312646775118691 0.0970917011270642 -0.12361880490859882
0.071722533946974 0.15930890503598882 -0.2593831634069077 0.18266053896361956 -0.07737846042292419 0.03261143494312242
-0.16285773047356472 0.1180857538465082 0.05585438842958527 0.0011653019013815168 0.18587381635205222 0.12488036874383575
0.21479191673537482 0.11227592554475052 0.07924966478317458 0.12039293622613524 0.14890395488103056 0.002123384210479507
0.19753171754538312 -0.05880297997741257 0.05921162741885941 0.015942935368011377 0.1476858450292453 0.1504369198599084
-0.35216066118570544 -0.10800227547241929 -0.035559344194013374 0.05651063261422865 -0.05694824011568227 -0.08159674809388927
-0.21355144573356327 -0.09397167128994884 -0.12039286030447083 0.15304312476635346 -0.23922050500774023 0.0347808027452184
0.06097707676954096 0.004334549864157832 0.1970561810275022 -0.03677301187071106 0.1111366407459646 -0.04289141926329333
0.253395288387506 0.03741508679084133 0.07313504631352695 0.17705544801820525 0.2715652875076054 -0.04621036766362992
0.18964107160503654 0.026765463417635322 -0.14050559405715143 0.02576485918833307 0.3558053729047604 -0.09946437919259872
-0.07596542557488092 -0.03238901256853415 -0.08547735904350491 0.2718158265278552 -0.19598113477802084 0.1327994067628945
-0.15005304920499402 0.16998196059147616 0.2210586466659206 0.01350536522273734 -0.027409488346754284 -0.1953676069681401
0.09900513585065117 -0.10122604930389666 -0.008761111473028823 0.2259636695617965 -0.10614027657205441 -0.03804643605978685
-0.08149274536363167 0.283596537427708 0.10251657280623029 -0.041599057903318665 0.2156403873321664 -0.1324882025141538
0.03286094320187252 -0.05951172468388485 -0.011873333992458886 0.1385314554178058 -0.02393009880585993 -0.0456243603957651
6 48
0.6424289816955844 0.6837749360621912 -0.1036751185490336 0.5364927426102584 0.699389674039414 0.02140371299521723 0.6872585718423109 0.7029545209850078 -0.15031824722432324 0.4502289350385334 0.6458973329684412 0.026937649157464567 0.29360924673778993 0.2968701118248367 -0.6279284239991113 0.23328790486640402 0.5627125240098195 -0.6256165417283578 0.21568998316921545 0.23176940018858022 -0.4460948748434449 0.23004866546506095 0.15087841375769442 -0.676587413468732 0.31682379705533537 0.6211642130723438 -0.38916963505378604 0.047543878790151685 0.09078892944706315 -0.6748289792847817 -0.020318973206754066 -0.029549134603496063 -0.5839868245490445 -0.0015394260964442606 0.10993463113205577 -0.8002269386937763 0.4271801917149681 0.4322390863657642 -0.1840607168642363 0.4927753417998976 0.4082117360624741 -0.18503087439765914 0.3178145286183823 0.3462948363175554 -0.31198079752663804 0.4366503751511517 0.3185850111066407 -0.21898621527629047
-0.5408130304343827 0.32948607871096974 -0.32966897912873616 -0.5162109581895444 0.3818745386025945 -0.2188932969554087 -0.3144792506388684 0.29320931067382894 -0.19092414202781033 -0.5398028318681325 0.25495133633315703 -0.43816787450058853 -0.08821718012605773 0.7908990948445607 0.15777141216309204 -0.17559097461460854 0.7053518603140666 0.10267200751060049 0.16827858966800915 0.7805331255982888 0.16199438310315262 0.17566405094174112 0.4964385750409784 0.13182888570222484 -0.5144044362965677 0.4200388387785701 -0.5202925051561984 -0.29957828938369085 0.49529733581315466 -0.1084193881416958 0.2764977422897799 0.7711134567650876 0.30495092410929153 -0.3050087210261121 0.8646945826191347 0.11878154552544824 -0.5471489324517887 -0.002885452219940412 -0.5822174719539626 -0.4825783516217349 0.11492049790511154 -0.45226448741551284 0.12100663389453556 0.7435325465958065 0.03413071211347313 -0.04331232213988945 0.7126626933157565 -0.01075107410776235
0.22563921036390358 0.39111824273956347 0.484079623115912 0.3505727953711239 0.1827617296402803 0.08744349898901879 -0.08065765742570899 0.32889883053835356 0.3710997373467169 0.3261468845811659 0.5352470854629748 0.3823827821726709 -0.7734193041462869 -0.08894205139270184 0.17135155937316723 -0.6153678063053678 -0.13088262697632458 0.1357475544573042 -0.8362021848641854 -0.2896995170616219 0.08044595535568609 -0.8359356031027358 0.45404497503938634 0.15679295269327548 -0.24156979929945932 -0.5759605625265037 0.373447853798308 -0.1447472275443344 -0.022130174579342406 -0.21795334092302407 -0.8533943448318939 0.0900922785357819 -0.5210342651137885 0.48420307774413374 -0.41930331551305394 0.22124137403395064 0.08283247771711927 0.5422840396497011 0.43638439602079265 -0.032869499640655664 0.6493272222137134 0.5140927830643645 -0.5246854620711305 -0.03692833545219795 0.32330750122168317 -0.24665837262226958 0.36756762050474745 0.25733110159262945
-0.23477106211504548 -0.34791781160534113 -0.43843175020685676 -0.3510240520694098 -0.34358611653754145 -0.33781199511485627 -0.1161718799785176 -0.4693360886053292 -0.4511536834477528 -0.3600311805936773 -0.38383981146309454 -0.27683935452850716 -0.27329708529811697 -0.43368962601973227 -0.5026043032397373 -0.3640510935793223 -0.24851888903680505 -0.5462620224662843 -0.1921903737428594 -0.4001575521014998 -0.20505584745928965 -0.10120542719169558 -0.45395089771463065 -0.4760153579682985 0.09948120154599138 0.1668851011264183 0.010406991030988027 -0.08254000348416696 -0.21533175660292905 -0.1376101229082808 0.06450504517506388 -0.1720718022701807 0.1206443928054053 0.006463792355828986 0.015063198297306438 -0.09395847583568613 0.48809064829607174 0.3040375208801221 0.48992206341765093 0.6261272879982726 0.3754383464002981 0.5895821876234454 0.6403424715818177 0.5016552954479274 0.6421928051323653 0.7125978720588663 0.45122583323067234 0.6600318258171473
0.32791743313672816 0.09977569035883238 0.2263271347360885 0.41965514715444957 0.05080617409780608 0.05393651396707772 0.10704120198882258 0.23981647472432296 0.15220958093403286 0.5194909164221299 0.2198279871109454 0.13695763513463752 0.4795406605565573 0.28919124527488066 0.3671939704117762 0.6162929355752229 0.1437914089952437 0.46493248782128943 0.32734159074840247 0.299690640853917 0.05723539258109112 0.2652706248837272 0.4939555121267063 0.4629753595496106 0.6636401863876089 0.27898294430657183 0.6416182806417208 0.7811648410034929 0.6296068789967507 0.6638589052826799 0.4354220869867395 0.49574509010938606 0.2571821617911512 0.7008232156002028 0.25146905189335916 0.5357839748448603 0.4886332168143603 0.4746707531262011 0.4412854508931828 0.3621418396128434 0.38777842264791335 0.32103054870345965 0.09596358446106316 0.01706943546689199 0.07055406247090155 0.05547114882879927 0.050203904452571675 0.040974368178772085
-0.28503670250460883 -0.37405252161467867 -0.6346576880261691 -0.15320630291466808 -0.4593379844833055 -0.9093707431626369 -0.6303325106834685 -0.1841751753490907 -0.7592957123986416 0.006461825936305204 -0.18886414188063594 -0.7521098740702457 -0.056421426560147266 -0.08196219806990365 -0.40498175439959494 0.15400274303929937 -0.29370988904160944 -0.2550893718440769 -0.2860706148052565 -0.05643250902590331 -0.8502716271916828 -0.36989238606720515 0.27306435252235306 -0.24357705607085875 0.3554433613877951 0.017598424303923218 0.16308611592612887 0.5196241980918316 0.5506138277573519 0.16031916330551957 -0.03318034593694652 0.3478826918433013 -0.4623741811091876 0.42581654457358736 -0.03063986396266714 -0.026217981711400756 0.18517291548724032 0.4487069519720547 -0.044234029605267414 0.005300969644333861 0.32742107319968156 -0.21508428622255407 -0.4356707419481675 -0.2718936105449646 -0.6161053979832815 -0.4855382211848326 -0.22222586711180603 -0.6696187319202269
